      0.1445       0.0176       0.1116       0.1804       1.0000   19831.0468
     -0.0085       0.0044      -0.0174      -0.0002       1.0002    8032.6734
      0.0067       0.0016       0.0038       0.0101       1.0003    4599.0016
     -0.0071       0.0151      -0.0370       0.0224       1.0056    1479.0354
     -0.0041       0.0040      -0.0128       0.0029       1.0035    1206.0919
      0.0162       0.0133       0.0019       0.0522       1.0047     644.9634
      0.1351       0.0088       0.1190       0.1534       1.0001   10116.4390
      2.8300       0.0465       2.7388       2.9213       1.0000   62035.5105
     -0.0711       0.0104      -0.0915      -0.0509       1.0001   47271.1546
     -0.0194       0.0475      -0.1127       0.0737       1.0000   97725.3186
      0.1315       0.0419       0.0493       0.2135       1.0000   96833.6338
      0.0039       0.0235      -0.0421       0.0503       1.0002   46631.0361
     -0.0625       0.0520      -0.1643       0.0394       1.0000   43736.9288
     -0.0324       0.1295      -0.2875       0.2201       1.0000   47732.3968
     -0.0056       0.0431      -0.0901       0.0788       1.0000   48026.8469
     -0.0292       0.0141      -0.0567      -0.0015       1.0000   52255.9903
      0.1540       0.0639       0.0283       0.2792       1.0000  104648.3582
     -0.2470       0.0352      -0.3155      -0.1773       1.0001   49084.5017
     -0.0143       0.0349      -0.0827       0.0542       1.0000   97864.5247
      0.1115       0.0355       0.0418       0.1809       1.0000   96258.2913
      0.0052       0.0314      -0.0561       0.0670       1.0002   46689.6792
     -0.0391       0.0324      -0.1022       0.0247       1.0000   43793.5643
     -0.0078       0.0313      -0.0694       0.0531       1.0000   47721.7065
     -0.0040       0.0305      -0.0637       0.0560       1.0000   48136.6522
     -0.1084       0.0524      -0.2108      -0.0056       1.0000   51860.4036
      0.0876       0.0363       0.0161       0.1586       1.0000  104812.6817
      0.0938       0.0135       0.0692       0.1220       1.0001   45314.2950
      0.4348       0.0275       0.3806       0.4884       1.0001   38007.0881
      0.0805       0.0173       0.0489       0.1165       1.0005    3741.7755
      0.3893       0.0289       0.3353       0.4485       1.0001   10261.6591
      1.8538       0.0317       1.7916       1.9163       1.0000   98282.0588
     -0.0062       0.0804      -0.1532       0.1636       1.0000   55703.9264
      0.0874       0.0729      -0.0639       0.2201       1.0000   39438.6887
     -0.1831       0.1058      -0.3661       0.0433       1.0001   24257.6635
      0.0930       0.0976      -0.0834       0.3019       1.0001   46962.1474
      0.5904       0.0461       0.4926       0.6754       1.0000   41851.3130
     -0.9710       0.0601      -1.0899      -0.8544       1.0000  123743.2994
     -1.9040       0.1212      -2.1577      -1.6824       1.0001   18338.3344
     -0.0060       0.0759      -0.1552       0.1419       1.0000  127481.8068
     -0.1464       0.1200      -0.3823       0.0881       1.0000  124133.9055
      0.0734       0.1455      -0.2080       0.3628       1.0000  119386.1655
     -0.2343       0.1513      -0.5414       0.0513       1.0001   21065.6780
      0.1394       0.2240      -0.2904       0.5908       1.0001   24703.6111
      0.2647       0.2991      -0.2654       0.9108       1.0003   19653.1503
      1.0000       0.0000       1.0000       1.0000          nan          nan
      0.5000       0.0000       0.5000       0.5000          nan          nan
      1.0000       0.0000       1.0000       1.0000          nan          nan
